digraph Tree {
node [shape=box, fontname="helvetica"] ;
edge [fontname="helvetica"] ;
0 [label="x[3] <= 0.5\ngini = 0.5\nsamples = 287\nvalue = [143, 144]"] ;
1 [label="x[5] <= -0.629\ngini = 0.179\nsamples = 141\nvalue = [127, 14]"] ;
0 -> 1 [labeldistance=2.5, labelangle=45, headlabel="True"] ;
2 [label="x[8] <= -0.904\ngini = 0.494\nsamples = 18\nvalue = [10, 8]"] ;
1 -> 2 ;
3 [label="gini = 0.0\nsamples = 3\nvalue = [0, 3]"] ;
2 -> 3 ;
4 [label="x[8] <= 0.148\ngini = 0.444\nsamples = 15\nvalue = [10, 5]"] ;
2 -> 4 ;
5 [label="x[5] <= -0.787\ngini = 0.18\nsamples = 10\nvalue = [9, 1]"] ;
4 -> 5 ;
6 [label="gini = 0.444\nsamples = 3\nvalue = [2, 1]"] ;
5 -> 6 ;
7 [label="gini = 0.0\nsamples = 7\nvalue = [7, 0]"] ;
5 -> 7 ;
8 [label="gini = 0.32\nsamples = 5\nvalue = [1, 4]"] ;
4 -> 8 ;
9 [label="x[8] <= 0.511\ngini = 0.093\nsamples = 123\nvalue = [117, 6]"] ;
1 -> 9 ;
10 [label="x[2] <= 0.5\ngini = 0.02\nsamples = 97\nvalue = [96, 1]"] ;
9 -> 10 ;
11 [label="gini = 0.0\nsamples = 94\nvalue = [94, 0]"] ;
10 -> 11 ;
12 [label="gini = 0.444\nsamples = 3\nvalue = [2, 1]"] ;
10 -> 12 ;
13 [label="x[5] <= -0.428\ngini = 0.311\nsamples = 26\nvalue = [21, 5]"] ;
9 -> 13 ;
14 [label="x[5] <= -0.582\ngini = 0.091\nsamples = 21\nvalue = [20, 1]"] ;
13 -> 14 ;
15 [label="gini = 0.444\nsamples = 3\nvalue = [2, 1]"] ;
14 -> 15 ;
16 [label="gini = 0.0\nsamples = 18\nvalue = [18, 0]"] ;
14 -> 16 ;
17 [label="gini = 0.32\nsamples = 5\nvalue = [1, 4]"] ;
13 -> 17 ;
18 [label="x[7] <= -0.218\ngini = 0.195\nsamples = 146\nvalue = [16, 130]"] ;
0 -> 18 [labeldistance=2.5, labelangle=-45, headlabel="False"] ;
19 [label="x[6] <= 1.006\ngini = 0.14\nsamples = 132\nvalue = [10, 122]"] ;
18 -> 19 ;
20 [label="x[6] <= -1.192\ngini = 0.044\nsamples = 88\nvalue = [2, 86]"] ;
19 -> 20 ;
21 [label="gini = 0.375\nsamples = 4\nvalue = [1, 3]"] ;
20 -> 21 ;
22 [label="x[8] <= 1.419\ngini = 0.024\nsamples = 84\nvalue = [1, 83]"] ;
20 -> 22 ;
23 [label="gini = 0.0\nsamples = 72\nvalue = [0, 72]"] ;
22 -> 23 ;
24 [label="x[5] <= 1.379\ngini = 0.153\nsamples = 12\nvalue = [1, 11]"] ;
22 -> 24 ;
25 [label="gini = 0.444\nsamples = 3\nvalue = [1, 2]"] ;
24 -> 25 ;
26 [label="gini = 0.0\nsamples = 9\nvalue = [0, 9]"] ;
24 -> 26 ;
27 [label="x[8] <= 0.983\ngini = 0.298\nsamples = 44\nvalue = [8, 36]"] ;
19 -> 27 ;
28 [label="x[6] <= 1.066\ngini = 0.219\nsamples = 40\nvalue = [5, 35]"] ;
27 -> 28 ;
29 [label="x[8] <= 0.094\ngini = 0.444\nsamples = 6\nvalue = [2, 4]"] ;
28 -> 29 ;
30 [label="gini = 0.0\nsamples = 3\nvalue = [0, 3]"] ;
29 -> 30 ;
31 [label="gini = 0.444\nsamples = 3\nvalue = [2, 1]"] ;
29 -> 31 ;
32 [label="x[5] <= -0.907\ngini = 0.161\nsamples = 34\nvalue = [3, 31]"] ;
28 -> 32 ;
33 [label="x[8] <= 0.529\ngini = 0.346\nsamples = 9\nvalue = [2, 7]"] ;
32 -> 33 ;
34 [label="x[8] <= -0.196\ngini = 0.444\nsamples = 6\nvalue = [2, 4]"] ;
33 -> 34 ;
35 [label="gini = 0.444\nsamples = 3\nvalue = [1, 2]"] ;
34 -> 35 ;
36 [label="gini = 0.444\nsamples = 3\nvalue = [1, 2]"] ;
34 -> 36 ;
37 [label="gini = 0.0\nsamples = 3\nvalue = [0, 3]"] ;
33 -> 37 ;
38 [label="x[8] <= -0.251\ngini = 0.077\nsamples = 25\nvalue = [1, 24]"] ;
32 -> 38 ;
39 [label="x[7] <= -0.521\ngini = 0.18\nsamples = 10\nvalue = [1, 9]"] ;
38 -> 39 ;
40 [label="gini = 0.375\nsamples = 4\nvalue = [1, 3]"] ;
39 -> 40 ;
41 [label="gini = 0.0\nsamples = 6\nvalue = [0, 6]"] ;
39 -> 41 ;
42 [label="gini = 0.0\nsamples = 15\nvalue = [0, 15]"] ;
38 -> 42 ;
43 [label="gini = 0.375\nsamples = 4\nvalue = [3, 1]"] ;
27 -> 43 ;
44 [label="x[5] <= -0.854\ngini = 0.49\nsamples = 14\nvalue = [6, 8]"] ;
18 -> 44 ;
45 [label="x[7] <= -0.045\ngini = 0.278\nsamples = 6\nvalue = [5, 1]"] ;
44 -> 45 ;
46 [label="gini = 0.0\nsamples = 3\nvalue = [3, 0]"] ;
45 -> 46 ;
47 [label="gini = 0.444\nsamples = 3\nvalue = [2, 1]"] ;
45 -> 47 ;
48 [label="x[5] <= -0.821\ngini = 0.219\nsamples = 8\nvalue = [1, 7]"] ;
44 -> 48 ;
49 [label="gini = 0.444\nsamples = 3\nvalue = [1, 2]"] ;
48 -> 49 ;
50 [label="gini = 0.0\nsamples = 5\nvalue = [0, 5]"] ;
48 -> 50 ;
}
